{"sizes":[21,10,38],"layers":[{"Brew Time":{},"Haze":{},"Gravity":{},"ABV":{},"Banana Bread Scent":{},"Clove Scent":{},"Spice Scent":{},"Pilsner":{},"Fruity Scent":{},"Hoppy Flavor":{},"Juicy Flavor":{},"Ale":{},"Creamy Flavor":{},"Dry Taste":{},"Gritty Taste":{},"Sweet Flavor":{},"Crisp Taste":{},"Light Taste":{},"Refreshing Taste":{},"Lemon Flavor":{},"Lime Flavor":{}},{"0":{"bias":-0.08793533593416214,"weights":{"Brew Time":0.2717910408973694,"Haze":-0.2513720393180847,"Gravity":-0.43602341413497925,"ABV":0.36795201897621155,"Banana Bread Scent":0.9192111492156982,"Clove Scent":1.2090684175491333,"Spice Scent":1.0960711240768433,"Pilsner":-0.7861939668655396,"Fruity Scent":-0.39427292346954346,"Hoppy Flavor":-0.5382041335105896,"Juicy Flavor":-0.41208192706108093,"Ale":0.18886208534240723,"Creamy Flavor":-0.050678152590990067,"Dry Taste":-0.22671787440776825,"Gritty Taste":-0.30375340580940247,"Sweet Flavor":-0.3682993948459625,"Crisp Taste":-1.58866548538208,"Light Taste":0.8551421165466309,"Refreshing Taste":0.8112210035324097,"Lemon Flavor":0.9632477760314941,"Lime Flavor":0.9059351086616516}},"1":{"bias":0.028365274891257286,"weights":{"Brew Time":0.7291156649589539,"Haze":-0.30938825011253357,"Gravity":-0.1047866940498352,"ABV":0.6515074372291565,"Banana Bread Scent":1.1410610675811768,"Clove Scent":0.8555312752723694,"Spice Scent":1.136401653289795,"Pilsner":-0.018539946526288986,"Fruity Scent":0.9533323645591736,"Hoppy Flavor":1.1225180625915527,"Juicy Flavor":1.001562237739563,"Ale":-0.521062970161438,"Creamy Flavor":-0.8569390773773193,"Dry Taste":-0.9462149739265442,"Gritty Taste":-0.8899534940719604,"Sweet Flavor":-1.0437754392623901,"Crisp Taste":-0.2838747799396515,"Light Taste":-0.7630916833877563,"Refreshing Taste":-0.841113269329071,"Lemon Flavor":-0.7120723724365234,"Lime Flavor":-0.8254117369651794}},"2":{"bias":0.3503144085407257,"weights":{"Brew Time":-0.3496820628643036,"Haze":-0.2623482346534729,"Gravity":0.38695159554481506,"ABV":-0.187844380736351,"Banana Bread Scent":-0.8602221608161926,"Clove Scent":-0.9219569563865662,"Spice Scent":-0.6700280904769897,"Pilsner":-1.186490774154663,"Fruity Scent":0.7635266780853271,"Hoppy Flavor":0.7351022362709045,"Juicy Flavor":0.7658986449241638,"Ale":0.7376127243041992,"Creamy Flavor":-0.5636727809906006,"Dry Taste":-0.8273305892944336,"Gritty Taste":-0.5654988884925842,"Sweet Flavor":-0.825310468673706,"Crisp Taste":0.3940993845462799,"Light Taste":0.8385438323020935,"Refreshing Taste":0.6733559966087341,"Lemon Flavor":0.8779211044311523,"Lime Flavor":0.7840477228164673}},"3":{"bias":0.6804763078689575,"weights":{"Brew Time":0.013213353231549263,"Haze":-0.8388838768005371,"Gravity":0.8501574993133545,"ABV":-0.578091561794281,"Banana Bread Scent":-1.4381334781646729,"Clove Scent":-1.4320306777954102,"Spice Scent":-1.398740530014038,"Pilsner":-0.015047295019030571,"Fruity Scent":0.116334468126297,"Hoppy Flavor":-0.1345774233341217,"Juicy Flavor":-0.11374793201684952,"Ale":-0.17115402221679688,"Creamy Flavor":-1.0039429664611816,"Dry Taste":-1.013725757598877,"Gritty Taste":-0.9179645776748657,"Sweet Flavor":-1.0371181964874268,"Crisp Taste":2.221877098083496,"Light Taste":0.5785951614379883,"Refreshing Taste":0.6314716935157776,"Lemon Flavor":0.3943254053592682,"Lime Flavor":0.6348288059234619}},"4":{"bias":0.2619749903678894,"weights":{"Brew Time":0.9192354083061218,"Haze":-1.3743987083435059,"Gravity":0.11397481709718704,"ABV":-0.07102041691541672,"Banana Bread Scent":0.48523271083831787,"Clove Scent":0.5837599635124207,"Spice Scent":0.5589073896408081,"Pilsner":1.399235486984253,"Fruity Scent":-0.5365968942642212,"Hoppy Flavor":-0.8282202482223511,"Juicy Flavor":-0.7628297209739685,"Ale":-1.9260497093200684,"Creamy Flavor":-0.8279531598091125,"Dry Taste":-0.6677207946777344,"Gritty Taste":-0.756325364112854,"Sweet Flavor":-0.8352795243263245,"Crisp Taste":1.5299923419952393,"Light Taste":-0.4700537323951721,"Refreshing Taste":-0.20009998977184296,"Lemon Flavor":-0.4823658764362335,"Lime Flavor":-0.4517938494682312}},"5":{"bias":-0.10302453488111496,"weights":{"Brew Time":-0.2755683958530426,"Haze":0.36663857102394104,"Gravity":-0.4797530472278595,"ABV":0.36690983176231384,"Banana Bread Scent":0.45625054836273193,"Clove Scent":0.3018605411052704,"Spice Scent":0.20145730674266815,"Pilsner":-1.0992838144302368,"Fruity Scent":1.0811644792556763,"Hoppy Flavor":0.9377292394638062,"Juicy Flavor":1.1828134059906006,"Ale":0.39578571915626526,"Creamy Flavor":-0.22170671820640564,"Dry Taste":-0.4435212016105652,"Gritty Taste":-0.36374208331108093,"Sweet Flavor":-0.22708068788051605,"Crisp Taste":-0.8173519372940063,"Light Taste":-0.3866175711154938,"Refreshing Taste":-0.4381313920021057,"Lemon Flavor":-0.3935093283653259,"Lime Flavor":-0.5476396679878235}},"6":{"bias":-0.1745983213186264,"weights":{"Brew Time":0.3798411786556244,"Haze":-0.3889450430870056,"Gravity":-0.2596087157726288,"ABV":0.0765811875462532,"Banana Bread Scent":0.7355445027351379,"Clove Scent":0.8756799697875977,"Spice Scent":0.8919616341590881,"Pilsner":-0.29498401284217834,"Fruity Scent":-0.7958780527114868,"Hoppy Flavor":-0.6479932069778442,"Juicy Flavor":-0.9593201279640198,"Ale":-0.060067471116781235,"Creamy Flavor":-0.1644212305545807,"Dry Taste":-0.3430494964122772,"Gritty Taste":-0.11802156269550323,"Sweet Flavor":-0.23201440274715424,"Crisp Taste":-1.2726365327835083,"Light Taste":0.7511412501335144,"Refreshing Taste":1.010093092918396,"Lemon Flavor":1.0003052949905396,"Lime Flavor":0.7702283263206482}},"7":{"bias":0.004892267286777496,"weights":{"Brew Time":0.42502400279045105,"Haze":-0.08033276349306107,"Gravity":-0.1873711347579956,"ABV":0.11228465288877487,"Banana Bread Scent":0.2526673376560211,"Clove Scent":0.29770129919052124,"Spice Scent":0.3525038957595825,"Pilsner":1.6902393102645874,"Fruity Scent":-1.062777042388916,"Hoppy Flavor":-0.7616948485374451,"Juicy Flavor":-0.8176471590995789,"Ale":-0.8966244459152222,"Creamy Flavor":0.8614813685417175,"Dry Taste":0.9290404915809631,"Gritty Taste":0.9579004645347595,"Sweet Flavor":1.0120279788970947,"Crisp Taste":0.5235527753829956,"Light Taste":-0.5439612865447998,"Refreshing Taste":-0.8290129899978638,"Lemon Flavor":-0.7585662007331848,"Lime Flavor":-0.6612311005592346}},"8":{"bias":0.32169225811958313,"weights":{"Brew Time":-0.2935295104980469,"Haze":-0.09892621636390686,"Gravity":0.35022714734077454,"ABV":-0.5814457535743713,"Banana Bread Scent":-1.2559137344360352,"Clove Scent":-1.0849192142486572,"Spice Scent":-1.2513139247894287,"Pilsner":0.9620677828788757,"Fruity Scent":-1.1728743314743042,"Hoppy Flavor":-1.262972116470337,"Juicy Flavor":-1.3017480373382568,"Ale":0.15592332184314728,"Creamy Flavor":0.6728197932243347,"Dry Taste":0.8140507936477661,"Gritty Taste":0.8388566374778748,"Sweet Flavor":0.8733779788017273,"Crisp Taste":1.197038173675537,"Light Taste":0.5920121669769287,"Refreshing Taste":0.3494654893875122,"Lemon Flavor":0.5868211984634399,"Lime Flavor":0.6238607168197632}},"9":{"bias":-0.2665333151817322,"weights":{"Brew Time":-0.9062069654464722,"Haze":0.9486289024353027,"Gravity":-0.2467082440853119,"ABV":-0.07342900335788727,"Banana Bread Scent":-0.825820803642273,"Clove Scent":-0.7704557776451111,"Spice Scent":-0.5663520097732544,"Pilsner":-0.17094433307647705,"Fruity Scent":1.0174384117126465,"Hoppy Flavor":0.8557624816894531,"Juicy Flavor":1.0208485126495361,"Ale":0.7488772869110107,"Creamy Flavor":0.7199563384056091,"Dry Taste":0.9462532997131348,"Gritty Taste":0.7930220365524292,"Sweet Flavor":0.639225959777832,"Crisp Taste":-0.19022934138774872,"Light Taste":-1.0277843475341797,"Refreshing Taste":-0.8809018731117249,"Lemon Flavor":-1.141380786895752,"Lime Flavor":-1.0906907320022583}}},{"Pilsner":{"bias":-0.054570723325014114,"weights":{"0":-0.541062593460083,"1":0.3883556127548218,"2":-1.7730733156204224,"3":-0.7819989919662476,"4":1.4762214422225952,"5":-0.9459145665168762,"6":-0.09715943783521652,"7":2.102363109588623,"8":0.746696412563324,"9":0.17278729379177094}},"Ale":{"bias":0.6804638504981995,"weights":{"0":0.4187912046909332,"1":-1.484158992767334,"2":1.315446138381958,"3":-0.1898394674062729,"4":-2.501382827758789,"5":0.8001573085784912,"6":0.017809003591537476,"7":-0.575774073600769,"8":0.3997029960155487,"9":1.496692180633545}},"red":{"bias":0.11279982328414917,"weights":{"0":-0.21686607599258423,"1":-0.271513432264328,"2":-0.39107662439346313,"3":0.22090530395507812,"4":0.7214329838752747,"5":-0.8215168118476868,"6":0.07689028233289719,"7":0.9080333709716797,"8":1.129349708557129,"9":-0.25613459944725037}},"green":{"bias":-0.3580564856529236,"weights":{"0":-0.6389155387878418,"1":-0.4410555958747864,"2":-0.5404044389724731,"3":0.2678890526294708,"4":0.6857059597969055,"5":-0.7770562767982483,"6":-0.15769577026367188,"7":0.6971465349197388,"8":0.8082123398780823,"9":-0.1546930968761444}},"blue":{"bias":-0.6448609232902527,"weights":{"0":-0.6024150848388672,"1":-0.42201367020606995,"2":-0.5995016694068909,"3":-0.22705547511577606,"4":-0.11704982072114944,"5":-0.4947779178619385,"6":-0.6411977410316467,"7":-0.28153523802757263,"8":-0.5437543988227844,"9":-0.7885055541992188}},"Water":{"bias":0.897398829460144,"weights":{"0":0.30352264642715454,"1":0.6371374130249023,"2":0.39842432737350464,"3":0.3002473711967468,"4":0.49824756383895874,"5":0.6332813501358032,"6":0.33930808305740356,"7":0.5824907422065735,"8":0.5052619576454163,"9":0.5829395651817322}},"Pilsner Malt":{"bias":-0.5208097696304321,"weights":{"0":1.1948381662368774,"1":0.7685564160346985,"2":-0.5576726794242859,"3":-0.9957561492919922,"4":0.47260236740112305,"5":-0.45345357060432434,"6":0.9560310244560242,"7":-0.1955024003982544,"8":-0.963596761226654,"9":-1.6788650751113892}},"Mash Time":{"bias":-0.19441752135753632,"weights":{"0":-0.5423096418380737,"1":2.480278253555298,"2":-0.412817120552063,"3":0.5481393933296204,"4":1.7431963682174683,"5":0.7124814391136169,"6":-0.45994582772254944,"7":-0.1575680673122406,"8":-1.6986192464828491,"9":-0.0454140342772007}},"Mash Temperature":{"bias":0.3434600234031677,"weights":{"0":-0.6539642810821533,"1":1.054192066192627,"2":-0.8303155303001404,"3":-0.7217915654182434,"4":0.6246877312660217,"5":0.2810303866863251,"6":-0.7452869415283203,"7":1.228743553161621,"8":-0.06340005993843079,"9":1.5455728769302368}},"Lactic Acid":{"bias":-0.5013300776481628,"weights":{"0":0.5281981825828552,"1":1.180661916732788,"2":-1.4203959703445435,"3":-1.5060665607452393,"4":0.9559387564659119,"5":-0.50450599193573,"6":0.4500975012779236,"7":-0.025974320247769356,"8":-1.2794678211212158,"9":-1.1534956693649292}},"Simplicity Candi Syrup":{"bias":-0.6045519113540649,"weights":{"0":0.5327612161636353,"1":1.0936495065689087,"2":-1.3288137912750244,"3":-1.5570935010910034,"4":0.9389001727104187,"5":-0.2561246156692505,"6":0.4620831310749054,"7":0.09941313415765762,"8":-1.235710620880127,"9":-1.2564727067947388}},"Styrian Golding Hops":{"bias":-0.8220809698104858,"weights":{"0":0.5799509286880493,"1":1.1531261205673218,"2":-1.322542667388916,"3":-1.5928597450256348,"4":0.8978552222251892,"5":-0.28824782371520996,"6":0.5767582654953003,"7":0.20360060036182404,"8":-1.182066559791565,"9":-1.122658371925354}},"Nelson Sauvin Hops":{"bias":-0.6492751240730286,"weights":{"0":0.45589086413383484,"1":1.0334428548812866,"2":-1.2164794206619263,"3":-1.6572307348251343,"4":0.9876136779785156,"5":-0.19274181127548218,"6":0.5460376143455505,"7":0.15797539055347443,"8":-1.2160041332244873,"9":-1.3316887617111206}},"Whirlfloc Tablet":{"bias":0.7064221501350403,"weights":{"0":0.3287433981895447,"1":1.2005035877227783,"2":-0.7482587099075317,"3":-2.3797194957733154,"4":-1.0070347785949707,"5":1.153154969215393,"6":-0.04705594480037689,"7":0.8182647228240967,"8":-1.0059123039245605,"9":1.5523120164871216}},"Whirlfloc Tablet Time":{"bias":0.2825389802455902,"weights":{"0":0.35155948996543884,"1":0.9427415728569031,"2":-1.1275259256362915,"3":-2.057548999786377,"4":-0.3213556110858917,"5":0.3750680983066559,"6":0.22265230119228363,"7":0.7653011679649353,"8":-1.0264915227890015,"9":0.5191224217414856}},"WLP530 Abbey Ale Yeast":{"bias":-0.7576131224632263,"weights":{"0":0.5566008687019348,"1":1.1835157871246338,"2":-1.4188015460968018,"3":-1.4393688440322876,"4":0.7948694825172424,"5":-0.262654572725296,"6":0.5444995760917664,"7":0.2565496563911438,"8":-1.282220482826233,"9":-1.2084957361221313}},"Pale Malt":{"bias":-1.0659624338150024,"weights":{"0":-1.5506618022918701,"1":-0.058104775846004486,"2":-0.30313795804977417,"3":1.769627571105957,"4":1.7529700994491577,"5":-0.9663879871368408,"6":-1.150315284729004,"7":-0.09738144278526306,"8":0.11680640280246735,"9":-0.5615347623825073}},"Munich Malt":{"bias":-0.39143890142440796,"weights":{"0":-0.48256802558898926,"1":0.7056940793991089,"2":0.7001050114631653,"3":-0.1568574160337448,"4":-1.0715522766113281,"5":0.8856663107872009,"6":-1.0025736093521118,"7":-1.284066081047058,"8":-1.7604568004608154,"9":0.8247129321098328}},"Crystal 60L":{"bias":-0.253571480512619,"weights":{"0":-0.6835053563117981,"1":0.654150128364563,"2":0.4876058101654053,"3":0.02323785610496998,"4":-1.0559614896774292,"5":1.0959153175354004,"6":-1.0889066457748413,"7":-1.347612738609314,"8":-1.6555362939834595,"9":0.6956467628479004}},"Corn Sugar":{"bias":-0.33426433801651,"weights":{"0":-0.6192899942398071,"1":0.48460283875465393,"2":0.7322646975517273,"3":-0.09949170053005219,"4":-0.8836351633071899,"5":1.0507539510726929,"6":-1.1176046133041382,"7":-1.2899736166000366,"8":-1.682472586631775,"9":0.7640237808227539}},"Nugget":{"bias":-0.1912691444158554,"weights":{"0":-0.7267152667045593,"1":0.6656033992767334,"2":0.6440939903259277,"3":-0.061845384538173676,"4":-0.9662855863571167,"5":0.8836948275566101,"6":-1.061263918876648,"7":-1.3787240982055664,"8":-1.7257976531982422,"9":0.7225733995437622}},"Citra Hops":{"bias":0.07895950973033905,"weights":{"0":0.3203986585140228,"1":-0.15570604801177979,"2":1.281389832496643,"3":0.4561777412891388,"4":-1.2829560041427612,"5":0.9371744990348816,"6":-0.26934096217155457,"7":-1.9359198808670044,"8":-1.147159218788147,"9":0.1677987426519394}},"Mosaic Hops":{"bias":-0.325154185295105,"weights":{"0":-0.6274280548095703,"1":0.559699535369873,"2":0.6684063076972961,"3":-0.06515651941299438,"4":-1.0389397144317627,"5":1.0161415338516235,"6":-0.9937198758125305,"7":-1.3067359924316406,"8":-1.742052435874939,"9":0.7829979658126831}},"Sugar":{"bias":-0.39082178473472595,"weights":{"0":-0.5331891775131226,"1":0.5804420113563538,"2":0.5611094832420349,"3":-0.03630447015166283,"4":-0.9115926027297974,"5":1.066786289215088,"6":-0.988333523273468,"7":-1.3306595087051392,"8":-1.7399276494979858,"9":0.8340463042259216}},"WLP001 California Ale Yeast":{"bias":0.15225574374198914,"weights":{"0":-0.830314576625824,"1":-0.9575982093811035,"2":-0.5000360608100891,"3":-1.097297191619873,"4":-1.533272385597229,"5":0.27595171332359314,"6":-0.7527137398719788,"7":0.44232386350631714,"8":0.12360743433237076,"9":1.737609624862671}},"German Pilsner":{"bias":-0.34406378865242004,"weights":{"0":-0.612318754196167,"1":-1.4804784059524536,"2":-1.0668386220932007,"3":-1.30526602268219,"4":-1.2575076818466187,"5":-0.3642503321170807,"6":-0.654455840587616,"7":1.0096118450164795,"8":0.8232467174530029,"9":0.9561147093772888}},"Flaked Corn":{"bias":-0.4849022626876831,"weights":{"0":-1.5051060914993286,"1":-1.2093429565429688,"2":-1.151479721069336,"3":0.4014863669872284,"4":0.23354198038578033,"5":-0.8386927843093872,"6":-0.9541659951210022,"7":1.5854356288909912,"8":1.341571569442749,"9":0.8104885816574097}},"Flaked Rice":{"bias":-0.22274306416511536,"weights":{"0":-0.7570905089378357,"1":-1.483183741569519,"2":-1.0564264059066772,"3":-1.1892939805984497,"4":-1.305616855621338,"5":-0.6412244439125061,"6":-0.5511782169342041,"7":0.9448292851448059,"8":0.725524365901947,"9":1.0163812637329102}},"Huell Melon Hops":{"bias":-0.2062859833240509,"weights":{"0":-0.5939085483551025,"1":-1.284245252609253,"2":-1.1356236934661865,"3":-1.4318585395812988,"4":-1.3511027097702026,"5":-0.4611451029777527,"6":-0.6209490299224854,"7":0.8565887212753296,"8":0.9100950956344604,"9":0.9019628167152405}},"Alpha galactosidase enzyme":{"bias":-0.3800887167453766,"weights":{"0":-0.5989618301391602,"1":-1.380912184715271,"2":-0.9784624576568604,"3":-1.3298009634017944,"4":-1.353392243385315,"5":-0.4216051697731018,"6":-0.6091513633728027,"7":1.1172468662261963,"8":0.7519964575767517,"9":0.9431085586547852}},"Yeast nutrient":{"bias":-0.3338503837585449,"weights":{"0":-0.6639265418052673,"1":-1.2868883609771729,"2":-1.097617745399475,"3":-1.2634345293045044,"4":-1.3965706825256348,"5":-0.3810485601425171,"6":-0.7957599759101868,"7":1.029905915260315,"8":0.907402753829956,"9":0.8435677886009216}},"Pilsner Malt Time":{"bias":-0.30688920617103577,"weights":{"0":-0.7712262272834778,"1":-1.4373769760131836,"2":-0.8956851959228516,"3":-1.270715355873108,"4":-1.2564457654953003,"5":-0.60514235496521,"6":-0.5858497619628906,"7":1.0991626977920532,"8":0.6293239593505859,"9":1.011396050453186}},"Cara-Pils":{"bias":-1.1621307134628296,"weights":{"0":-1.711309790611267,"1":-0.1590583473443985,"2":-0.5229604840278625,"3":1.6595045328140259,"4":1.753691554069519,"5":-0.8672894239425659,"6":-0.952935516834259,"7":0.057127729058265686,"8":0.31004995107650757,"9":-0.8055636882781982}},"Cluster Hops":{"bias":-0.9596284031867981,"weights":{"0":-1.6504212617874146,"1":-0.1862260401248932,"2":-0.504248857498169,"3":1.6244020462036133,"4":1.7495534420013428,"5":-0.9622458219528198,"6":-1.1757581233978271,"7":0.03894812986254692,"8":0.26137182116508484,"9":-0.9312575459480286}},"Honey Malt":{"bias":-0.40617868304252625,"weights":{"0":0.7591475248336792,"1":-1.4760518074035645,"2":1.0108940601348877,"3":0.45484423637390137,"4":-0.8851417899131775,"5":-0.6166005730628967,"6":0.5325039029121399,"7":-1.3843498229980469,"8":0.22654925286769867,"9":-1.6895009279251099}},"Carmel Malt":{"bias":-0.551117479801178,"weights":{"0":0.692735493183136,"1":-1.4985597133636475,"2":0.7690351605415344,"3":0.7137574553489685,"4":-0.8828359246253967,"5":-0.39643052220344543,"6":0.8258096575737,"7":-1.3855291604995728,"8":0.11218263953924179,"9":-1.6304150819778442}},"Galaxy Hops":{"bias":-0.6197804808616638,"weights":{"0":0.8285865187644958,"1":-1.5550432205200195,"2":1.0065544843673706,"3":0.5643520355224609,"4":-0.9646244049072266,"5":-0.5381560921669006,"6":0.6286652088165283,"7":-1.2223193645477295,"8":0.1715564727783203,"9":-1.5079516172409058}},"Safale US-05":{"bias":-0.4167736768722534,"weights":{"0":0.6028762459754944,"1":-1.2960662841796875,"2":0.9734557271003723,"3":0.5499173998832703,"4":-0.9962082505226135,"5":-0.7993888258934021,"6":0.6779208779335022,"7":-1.4508426189422607,"8":0.24887706339359283,"9":-1.6886146068572998}}}],"outputLookup":true,"inputLookup":true,"activation":"sigmoid","trainOpts":{"iterations":20000,"errorThresh":0.005,"log":true,"logPeriod":10,"learningRate":0.3,"momentum":0.1,"callbackPeriod":10,"beta1":0.9,"beta2":0.999,"epsilon":1e-8}}