{"sizes":[24,12,35],"layers":[{"red":{},"green":{},"blue":{},"Brew Time":{},"Haze":{},"Gravity":{},"ABV":{},"Banana Bread Scent":{},"Clove Scent":{},"Spice Scent":{},"Pilsner":{},"Fruity Scent":{},"Hoppy Flavor":{},"Juicy Flavor":{},"Ale":{},"Creamy Flavor":{},"Dry Taste":{},"Gritty Taste":{},"Sweet Flavor":{},"Crisp Taste":{},"Light Taste":{},"Refreshing Taste":{},"Lemon Flavor":{},"Lime Flavor":{}},{"0":{"bias":0.40984973311424255,"weights":{"red":0.1470717191696167,"green":0.06745073199272156,"blue":0.28481414914131165,"Brew Time":0.2229355424642563,"Haze":-0.45678311586380005,"Gravity":0.6827027201652527,"ABV":0.3305254876613617,"Banana Bread Scent":-0.28732573986053467,"Clove Scent":0.012884230352938175,"Spice Scent":0.05146290734410286,"Pilsner":-0.5914856195449829,"Fruity Scent":0.6326756477355957,"Hoppy Flavor":0.3722039461135864,"Juicy Flavor":0.7296830415725708,"Ale":0.22533079981803894,"Creamy Flavor":-1.0984375476837158,"Dry Taste":-1.1192327737808228,"Gritty Taste":-1.1458173990249634,"Sweet Flavor":-0.8280463814735413,"Crisp Taste":0.8179207444190979,"Light Taste":0.6754635572433472,"Refreshing Taste":0.4458228051662445,"Lemon Flavor":0.6946830153465271,"Lime Flavor":0.3594840466976166}},"1":{"bias":0.34933438897132874,"weights":{"red":0.786358118057251,"green":0.6663622260093689,"blue":0.4247622787952423,"Brew Time":-0.6972100734710693,"Haze":0.1359805464744568,"Gravity":0.558905303478241,"ABV":-0.2983357906341553,"Banana Bread Scent":-1.6138564348220825,"Clove Scent":-1.5120197534561157,"Spice Scent":-1.5892136096954346,"Pilsner":0.2417178750038147,"Fruity Scent":0.03596651181578636,"Hoppy Flavor":0.16493113338947296,"Juicy Flavor":0.20594899356365204,"Ale":0.4211280345916748,"Creamy Flavor":0.24295282363891602,"Dry Taste":0.4877578318119049,"Gritty Taste":0.45569294691085815,"Sweet Flavor":0.519560694694519,"Crisp Taste":1.4524791240692139,"Light Taste":0.07613061368465424,"Refreshing Taste":0.31588536500930786,"Lemon Flavor":0.20657965540885925,"Lime Flavor":0.17834289371967316}},"2":{"bias":-0.06075324863195419,"weights":{"red":-0.6277377605438232,"green":-0.8161484599113464,"blue":-0.10694188624620438,"Brew Time":-0.36238017678260803,"Haze":0.043264489620923996,"Gravity":0.09360671788454056,"ABV":0.12327098846435547,"Banana Bread Scent":-0.3872654438018799,"Clove Scent":-0.2446468323469162,"Spice Scent":-0.5248154401779175,"Pilsner":-1.5704740285873413,"Fruity Scent":0.703653872013092,"Hoppy Flavor":0.8563348650932312,"Juicy Flavor":0.8864684104919434,"Ale":0.8407854437828064,"Creamy Flavor":-0.7851026058197021,"Dry Taste":-0.6315634250640869,"Gritty Taste":-0.48461073637008667,"Sweet Flavor":-0.7608947157859802,"Crisp Taste":-0.3548204302787781,"Light Taste":0.9956904649734497,"Refreshing Taste":1.0347620248794556,"Lemon Flavor":0.8825573921203613,"Lime Flavor":0.9685192704200745}},"3":{"bias":0.008051702752709389,"weights":{"red":-0.6563024520874023,"green":-0.185899555683136,"blue":-0.11422091722488403,"Brew Time":-0.4732302725315094,"Haze":0.7305986881256104,"Gravity":-0.25888580083847046,"ABV":0.11461814492940903,"Banana Bread Scent":-0.2419165074825287,"Clove Scent":0.008570733480155468,"Spice Scent":-0.23139271140098572,"Pilsner":-0.37973806262016296,"Fruity Scent":0.929131805896759,"Hoppy Flavor":0.9249743819236755,"Juicy Flavor":0.6681451797485352,"Ale":0.5540088415145874,"Creamy Flavor":0.16295120120048523,"Dry Taste":0.1712546944618225,"Gritty Taste":0.5033441185951233,"Sweet Flavor":0.38171064853668213,"Crisp Taste":-0.6362616419792175,"Light Taste":-0.5162276029586792,"Refreshing Taste":-0.7551814317703247,"Lemon Flavor":-0.6367028951644897,"Lime Flavor":-0.46316075325012207}},"4":{"bias":0.3031071126461029,"weights":{"red":0.3381110727787018,"green":0.3269606828689575,"blue":-0.11413590610027313,"Brew Time":0.6418011784553528,"Haze":-1.0235728025436401,"Gravity":0.16148357093334198,"ABV":-0.28697049617767334,"Banana Bread Scent":0.17443425953388214,"Clove Scent":0.3703187108039856,"Spice Scent":0.36463943123817444,"Pilsner":-0.0338745079934597,"Fruity Scent":-0.9738525152206421,"Hoppy Flavor":-0.6943278908729553,"Juicy Flavor":-0.7941281199455261,"Ale":-0.47342029213905334,"Creamy Flavor":-0.49119749665260315,"Dry Taste":-0.7833257913589478,"Gritty Taste":-0.4448433518409729,"Sweet Flavor":-0.6408314108848572,"Crisp Taste":0.49323180317878723,"Light Taste":0.9943947792053223,"Refreshing Taste":0.7227626442909241,"Lemon Flavor":0.8055220246315002,"Lime Flavor":0.9865663051605225}},"5":{"bias":-0.6222977042198181,"weights":{"red":-0.4124531149864197,"green":-0.45758652687072754,"blue":-0.28189030289649963,"Brew Time":0.06477722525596619,"Haze":0.5427793264389038,"Gravity":-0.614473819732666,"ABV":0.4671100974082947,"Banana Bread Scent":1.028381586074829,"Clove Scent":1.1744155883789062,"Spice Scent":1.0965194702148438,"Pilsner":0.5596616864204407,"Fruity Scent":-0.4892648756504059,"Hoppy Flavor":-0.3471030294895172,"Juicy Flavor":-0.44556838274002075,"Ale":0.036600373685359955,"Creamy Flavor":1.0911248922348022,"Dry Taste":0.8291440010070801,"Gritty Taste":0.8741040229797363,"Sweet Flavor":1.115193486213684,"Crisp Taste":-1.65005362033844,"Light Taste":-0.7670257687568665,"Refreshing Taste":-0.5343484282493591,"Lemon Flavor":-0.6725743412971497,"Lime Flavor":-0.5914769172668457}},"6":{"bias":-0.07128696143627167,"weights":{"red":0.6005288362503052,"green":0.3144051432609558,"blue":0.3394458591938019,"Brew Time":0.8119831085205078,"Haze":-1.0132917165756226,"Gravity":-0.2541801333427429,"ABV":-0.22293375432491302,"Banana Bread Scent":0.5585680603981018,"Clove Scent":0.5380007028579712,"Spice Scent":0.30601605772972107,"Pilsner":1.158351182937622,"Fruity Scent":-0.6778717637062073,"Hoppy Flavor":-0.5578593015670776,"Juicy Flavor":-0.4253895580768585,"Ale":-1.5460137128829956,"Creamy Flavor":-0.7254753708839417,"Dry Taste":-0.5155274271965027,"Gritty Taste":-0.5445919036865234,"Sweet Flavor":-0.5517916679382324,"Crisp Taste":1.2961816787719727,"Light Taste":-0.41741853952407837,"Refreshing Taste":-0.7022958993911743,"Lemon Flavor":-0.4363636076450348,"Lime Flavor":-0.43370521068573}},"7":{"bias":0.14076633751392365,"weights":{"red":-0.4819045066833496,"green":-0.5780890583992004,"blue":0.035223063081502914,"Brew Time":0.46833279728889465,"Haze":-0.03844872862100601,"Gravity":0.12904256582260132,"ABV":0.7326239943504333,"Banana Bread Scent":0.9090157151222229,"Clove Scent":0.8729357123374939,"Spice Scent":0.7224071621894836,"Pilsner":-0.11734689772129059,"Fruity Scent":0.9687424898147583,"Hoppy Flavor":1.028502345085144,"Juicy Flavor":1.07515287399292,"Ale":-0.4209674298763275,"Creamy Flavor":-0.7377389669418335,"Dry Taste":-0.5278818607330322,"Gritty Taste":-0.8036552667617798,"Sweet Flavor":-0.81695955991745,"Crisp Taste":-0.30081743001937866,"Light Taste":-0.8272587656974792,"Refreshing Taste":-0.8358069062232971,"Lemon Flavor":-0.9293748736381531,"Lime Flavor":-0.9316397309303284}},"8":{"bias":-0.06999979168176651,"weights":{"red":-0.8022862076759338,"green":-0.635226845741272,"blue":-0.09609369188547134,"Brew Time":-0.046661268919706345,"Haze":0.8348603844642639,"Gravity":-0.07938831299543381,"ABV":0.6373069882392883,"Banana Bread Scent":0.9967449307441711,"Clove Scent":1.0705254077911377,"Spice Scent":0.7961846590042114,"Pilsner":0.11525588482618332,"Fruity Scent":0.7748298048973083,"Hoppy Flavor":0.5513824224472046,"Juicy Flavor":0.7268133163452148,"Ale":0.3722549080848694,"Creamy Flavor":0.22583666443824768,"Dry Taste":0.4536244869232178,"Gritty Taste":0.4360482096672058,"Sweet Flavor":0.44656601548194885,"Crisp Taste":-1.396038293838501,"Light Taste":-0.6816986203193665,"Refreshing Taste":-0.5861772298812866,"Lemon Flavor":-0.7074341773986816,"Lime Flavor":-0.4846073091030121}},"9":{"bias":0.1040118858218193,"weights":{"red":0.587399959564209,"green":0.25482863187789917,"blue":0.08713370561599731,"Brew Time":0.8587570786476135,"Haze":-1.0592901706695557,"Gravity":-0.08363664895296097,"ABV":-0.006069869734346867,"Banana Bread Scent":0.7999312281608582,"Clove Scent":0.9279338121414185,"Spice Scent":0.7113348245620728,"Pilsner":0.624132513999939,"Fruity Scent":-0.6477087140083313,"Hoppy Flavor":-0.5911725759506226,"Juicy Flavor":-0.728430986404419,"Ale":-1.0858216285705566,"Creamy Flavor":-0.7958990335464478,"Dry Taste":-0.7692092061042786,"Gritty Taste":-0.7438867092132568,"Sweet Flavor":-0.7165464162826538,"Crisp Taste":0.5190230011940002,"Light Taste":-0.045363396406173706,"Refreshing Taste":-0.040781110525131226,"Lemon Flavor":-0.08488079160451889,"Lime Flavor":0.17889083921909332}},"10":{"bias":0.08704418689012527,"weights":{"red":0.7040930986404419,"green":0.7402068376541138,"blue":0.11841217428445816,"Brew Time":0.16128243505954742,"Haze":-0.2589088976383209,"Gravity":-0.20098085701465607,"ABV":0.07192648947238922,"Banana Bread Scent":0.032625362277030945,"Clove Scent":0.028292547911405563,"Spice Scent":0.19187378883361816,"Pilsner":1.6684131622314453,"Fruity Scent":-0.6596495509147644,"Hoppy Flavor":-0.9267194867134094,"Juicy Flavor":-0.9252564907073975,"Ale":-1.2349281311035156,"Creamy Flavor":0.4987505376338959,"Dry Taste":0.6043357253074646,"Gritty Taste":0.5064371824264526,"Sweet Flavor":0.5274693369865417,"Crisp Taste":0.8212372660636902,"Light Taste":-0.880139172077179,"Refreshing Taste":-0.817232608795166,"Lemon Flavor":-0.8056967258453369,"Lime Flavor":-0.7640737295150757}},"11":{"bias":-0.12891362607479095,"weights":{"red":0.7905800342559814,"green":0.8264426589012146,"blue":-0.08134594559669495,"Brew Time":-0.43624913692474365,"Haze":-0.1687956005334854,"Gravity":0.0979815348982811,"ABV":-0.595441997051239,"Banana Bread Scent":-1.1778017282485962,"Clove Scent":-1.0110822916030884,"Spice Scent":-1.1233445405960083,"Pilsner":0.4136005640029907,"Fruity Scent":-1.1194316148757935,"Hoppy Flavor":-1.1953566074371338,"Juicy Flavor":-0.9925848245620728,"Ale":0.3020935356616974,"Creamy Flavor":0.7688475251197815,"Dry Taste":0.857296884059906,"Gritty Taste":0.8328006267547607,"Sweet Flavor":0.5718148946762085,"Crisp Taste":0.5471799373626709,"Light Taste":0.7886558175086975,"Refreshing Taste":0.8274387717247009,"Lemon Flavor":0.883252739906311,"Lime Flavor":0.7710179090499878}}},{"Pilsner":{"bias":-0.17394381761550903,"weights":{"0":-0.9560763239860535,"1":-0.34148722887039185,"2":-1.6684763431549072,"3":-0.3709199130535126,"4":-0.046557940542697906,"5":1.1707894802093506,"6":1.147515058517456,"7":0.020099105313420296,"8":0.10287044197320938,"9":0.6635869741439819,"10":2.0566976070404053,"11":0.3250139653682709}},"Ale":{"bias":0.5630692839622498,"weights":{"0":-0.16280901432037354,"1":0.9839529991149902,"2":1.3207573890686035,"3":0.7414712905883789,"4":-0.36683765053749084,"5":0.5476499795913696,"6":-1.654046654701233,"7":-0.4799533188343048,"8":0.5679845213890076,"9":-1.585508942604065,"10":-1.1442326307296753,"11":0.8358931541442871}},"Water":{"bias":0.49261176586151123,"weights":{"0":0.32714858651161194,"1":0.6037509441375732,"2":0.3662058413028717,"3":0.47874489426612854,"4":0.40572622418403625,"5":0.4095363914966583,"6":0.3256675601005554,"7":0.5599195957183838,"8":0.6471323370933533,"9":0.4389123022556305,"10":0.3929924964904785,"11":0.24008463323116302}},"Pilsner Malt":{"bias":-0.256421834230423,"weights":{"0":-0.13138389587402344,"1":-2.2529191970825195,"2":-0.1908329427242279,"3":-0.7474150657653809,"4":0.49575814604759216,"5":0.6798029541969299,"6":0.21778470277786255,"7":0.2721535861492157,"8":0.37025633454322815,"9":0.9302555918693542,"10":-0.17529621720314026,"11":-0.8770788908004761}},"Mash Time":{"bias":-0.014011547900736332,"weights":{"0":0.6468201279640198,"1":-0.7093899846076965,"2":-0.208745539188385,"3":0.22114284336566925,"4":-0.31821537017822266,"5":-0.6744771003723145,"6":1.4819855690002441,"7":2.117990255355835,"8":0.3189644515514374,"9":1.0770773887634277,"10":0.5061200857162476,"11":-2.075357675552368}},"Mash Temperature":{"bias":0.13529525697231293,"weights":{"0":-0.27064254879951477,"1":0.1487426459789276,"2":-1.1203701496124268,"3":0.6187639236450195,"4":-0.8442166447639465,"5":0.989529550075531,"6":0.7311539649963379,"7":1.0112892389297485,"8":1.1072450876235962,"9":0.3438190817832947,"10":1.2595205307006836,"11":-0.6018132567405701}},"Lactic Acid":{"bias":-0.336139976978302,"weights":{"0":-0.6492490172386169,"1":-2.092899799346924,"2":-0.8433611989021301,"3":-0.5418750643730164,"4":0.12952068448066711,"5":0.8284350633621216,"6":0.4736979901790619,"7":0.7388467192649841,"8":0.18081344664096832,"9":0.915569543838501,"10":0.10691022872924805,"11":-1.451324462890625}},"Simplicity Candi Syrup":{"bias":-0.608446478843689,"weights":{"0":-0.470890074968338,"1":-2.148580551147461,"2":-0.8157727718353271,"3":-0.6009103059768677,"4":-0.0008756241295486689,"5":0.7777130007743835,"6":0.5412268042564392,"7":0.7640519142150879,"8":0.3372444212436676,"9":0.897895097732544,"10":0.23685413599014282,"11":-1.36537504196167}},"Styrian Golding Hops":{"bias":-0.4225664436817169,"weights":{"0":-0.4063997268676758,"1":-2.1135551929473877,"2":-0.9251739382743835,"3":-0.5981414914131165,"4":0.020427826792001724,"5":0.6794604659080505,"6":0.509311318397522,"7":0.5267463326454163,"8":0.414583683013916,"9":0.9203794598579407,"10":0.22892530262470245,"11":-1.5426578521728516}},"Nelson Sauvin hops":{"bias":-0.6756969690322876,"weights":{"0":-0.4537351429462433,"1":-2.159931182861328,"2":-0.8772890567779541,"3":-0.45584753155708313,"4":0.15153823792934418,"5":0.7220734357833862,"6":0.4274899363517761,"7":0.5917460322380066,"8":0.43874862790107727,"9":0.9697843194007874,"10":0.2813268303871155,"11":-1.3611037731170654}},"Whirlfloc Tablet":{"bias":0.5027411580085754,"weights":{"0":-0.6437410116195679,"1":-0.7574565410614014,"2":-0.3540879487991333,"3":1.0930571556091309,"4":-1.0527247190475464,"5":1.7199996709823608,"6":-0.5550810694694519,"7":1.1570888757705688,"8":1.6690621376037598,"9":-0.4384317398071289,"10":0.1115412637591362,"11":-0.873415470123291}},"Whirlfloc Tablet Time":{"bias":0.07055827975273132,"weights":{"0":-0.7588417530059814,"1":-1.3529061079025269,"2":-0.4034966230392456,"3":0.30458351969718933,"4":-0.7092549204826355,"5":1.5453096628189087,"6":0.12250476330518723,"7":0.7295368909835815,"8":1.0009182691574097,"9":0.06637059897184372,"10":0.2273491770029068,"11":-0.8802003860473633}},"WLP530 Abbey Ale Yeast":{"bias":-0.4624377191066742,"weights":{"0":-0.42937973141670227,"1":-2.1562201976776123,"2":-0.8876497149467468,"3":-0.7047708034515381,"4":-0.008556801825761795,"5":0.7390938401222229,"6":0.43983542919158936,"7":0.7793795466423035,"8":0.35085228085517883,"9":0.8332939147949219,"10":0.2632567286491394,"11":-1.4147374629974365}},"Pale Malt":{"bias":-0.9382088780403137,"weights":{"0":-0.1322552114725113,"1":0.774436354637146,"2":-1.3405516147613525,"3":-0.7807149887084961,"4":-0.019585220143198967,"5":-1.6144715547561646,"6":1.254046082496643,"7":-0.4345395863056183,"8":-1.6992486715316772,"9":0.39924106001853943,"10":1.0787997245788574,"11":-0.10950201749801636}},"Munich Malt":{"bias":-0.25471511483192444,"weights":{"0":0.31298568844795227,"1":-0.39412978291511536,"2":0.717556893825531,"3":0.7776347398757935,"4":-1.040557622909546,"5":-0.5794647932052612,"6":-0.8080697059631348,"7":0.8647697567939758,"8":0.5853654742240906,"9":-1.0621342658996582,"10":-1.1708476543426514,"11":-1.6776572465896606}},"Crystal 60L":{"bias":-0.14213627576828003,"weights":{"0":0.06454949826002121,"1":-0.1538856476545334,"2":0.7559824585914612,"3":0.6448130011558533,"4":-1.0520658493041992,"5":-0.4903882145881653,"6":-0.9267793297767639,"7":1.077425241470337,"8":0.3717760741710663,"9":-0.9883022904396057,"10":-1.1867271661758423,"11":-1.7823349237442017}},"Corn Sugar":{"bias":-0.4575807452201843,"weights":{"0":0.3214007019996643,"1":-0.3173978626728058,"2":0.8045150637626648,"3":0.7149345874786377,"4":-1.1460790634155273,"5":-0.281867653131485,"6":-0.9376845359802246,"7":1.0264678001403809,"8":0.4569970667362213,"9":-0.9919499158859253,"10":-1.2237589359283447,"11":-1.52033269405365}},"Nugget":{"bias":-0.1801312416791916,"weights":{"0":0.3928591012954712,"1":-0.3168526887893677,"2":0.5824494361877441,"3":0.7178100943565369,"4":-1.2869863510131836,"5":-0.3460971415042877,"6":-0.9121944904327393,"7":1.0337566137313843,"8":0.3494212031364441,"9":-0.9453923106193542,"10":-1.3504376411437988,"11":-1.5420246124267578}},"Citra Hops":{"bias":-0.06132740527391434,"weights":{"0":0.7968051433563232,"1":0.008547133766114712,"2":1.5023242235183716,"3":0.32822680473327637,"4":-0.3698790967464447,"5":-0.9205712080001831,"6":-0.9594119191169739,"7":0.23690879344940186,"8":0.16614025831222534,"9":-0.6616841554641724,"10":-1.570204257965088,"11":-0.7467053532600403}},"Mosaic":{"bias":-0.22159938514232635,"weights":{"0":0.3897012770175934,"1":-0.20778906345367432,"2":0.49811527132987976,"3":0.940830409526825,"4":-1.2811088562011719,"5":-0.5589960813522339,"6":-0.8266501426696777,"7":0.9965549111366272,"8":0.2359587699174881,"9":-0.8727484345436096,"10":-1.1933082342147827,"11":-1.5805917978286743}},"Sugar":{"bias":-0.19747933745384216,"weights":{"0":0.2454514056444168,"1":-0.2968370318412781,"2":0.52420973777771,"3":0.9067603349685669,"4":-0.9557218551635742,"5":-0.5282139778137207,"6":-0.9411999583244324,"7":0.9352347254753113,"8":0.4891471266746521,"9":-1.0637881755828857,"10":-1.2728761434555054,"11":-1.6674553155899048}},"WLP001 California Ale Yeast":{"bias":-0.01783202402293682,"weights":{"0":-0.985303521156311,"1":0.5519797205924988,"2":-0.6638818979263306,"3":0.712418794631958,"4":-1.3020732402801514,"5":1.0456867218017578,"6":-1.0525805950164795,"7":-0.14407803118228912,"8":0.5160117745399475,"9":-1.426190733909607,"10":-0.022527173161506653,"11":0.19978591799736023}},"German Pilsner":{"bias":-0.17518500983715057,"weights":{"0":-1.6629234552383423,"1":0.21722324192523956,"2":-1.0745611190795898,"3":0.22997678816318512,"4":-0.9511216878890991,"5":0.9138104319572449,"6":-0.7802698016166687,"7":-0.8995482325553894,"8":0.14641126990318298,"9":-1.0882682800292969,"10":0.5952317714691162,"11":0.8134469389915466}},"Flaked Corn":{"bias":-0.5020792484283447,"weights":{"0":-1.1329880952835083,"1":1.3125044107437134,"2":-1.9464695453643799,"3":-0.1733093410730362,"4":-0.804561972618103,"5":-0.07864532619714737,"6":0.45002636313438416,"7":-1.0008004903793335,"8":-0.732375979423523,"9":-0.4012782573699951,"10":1.6260617971420288,"11":1.2557421922683716}},"Flaked Rice":{"bias":-0.1681797355413437,"weights":{"0":-1.551320195198059,"1":0.1684051752090454,"2":-1.0674468278884888,"3":0.2064710408449173,"4":-1.0456687211990356,"5":1.1735562086105347,"6":-0.6657732129096985,"7":-1.0083962678909302,"8":0.14790497720241547,"9":-1.0532029867172241,"10":0.38760480284690857,"11":0.8303418755531311}},"Huell Melon Hops":{"bias":-0.3410288989543915,"weights":{"0":-1.4255726337432861,"1":0.2907199263572693,"2":-1.2463709115982056,"3":0.24128933250904083,"4":-0.7845718860626221,"5":1.0902622938156128,"6":-0.9449400305747986,"7":-0.8651537895202637,"8":0.12375011295080185,"9":-1.197370171546936,"10":0.6156110763549805,"11":0.7211955189704895}},"Alpha galactosidase enzyme":{"bias":-0.30614617466926575,"weights":{"0":-1.606134057044983,"1":0.4612572491168976,"2":-1.1958786249160767,"3":0.06112329289317131,"4":-0.774139404296875,"5":1.1693841218948364,"6":-1.044699788093567,"7":-0.8353568911552429,"8":0.14221268892288208,"9":-1.0043244361877441,"10":0.5277898907661438,"11":0.6466789245605469}},"Yeast nutrient":{"bias":-0.23998402059078217,"weights":{"0":-1.4903630018234253,"1":0.4084627032279968,"2":-1.1205302476882935,"3":0.035741861909627914,"4":-0.8460413217544556,"5":1.0671250820159912,"6":-0.9405073523521423,"7":-0.8773815631866455,"8":0.16526943445205688,"9":-1.2749391794204712,"10":0.7169216275215149,"11":0.5396275520324707}},"Pilsner Malt Time":{"bias":-0.14965172111988068,"weights":{"0":-1.7050056457519531,"1":0.386544793844223,"2":-1.0521208047866821,"3":0.003573136869817972,"4":-0.9663565754890442,"5":1.2056752443313599,"6":-0.7684062719345093,"7":-0.8316583633422852,"8":0.16411589086055756,"9":-1.0795249938964844,"10":0.3756735920906067,"11":0.6952003836631775}},"Cara-Pils":{"bias":-0.7730951905250549,"weights":{"0":-0.19467896223068237,"1":0.6766709685325623,"2":-1.6027933359146118,"3":-0.8326066732406616,"4":-0.13098132610321045,"5":-1.6417096853256226,"6":1.2690150737762451,"7":-0.597887396812439,"8":-1.6905081272125244,"9":0.6066178679466248,"10":0.96940016746521,"11":-0.014610087499022484}},"Cluster Hops":{"bias":-1.1645050048828125,"weights":{"0":-0.17703290283679962,"1":0.7211114764213562,"2":-1.4798319339752197,"3":-0.8715509176254272,"4":0.053396448493003845,"5":-1.6696269512176514,"6":1.32671058177948,"7":-0.5095244646072388,"8":-1.5177247524261475,"9":0.46171051263809204,"10":1.0856105089187622,"11":0.07296056300401688}},"Honey Malt":{"bias":-0.5074249505996704,"weights":{"0":0.2523670196533203,"1":-0.002249991986900568,"2":1.238614797592163,"3":-0.768421471118927,"4":0.873735249042511,"5":-0.8389421701431274,"6":-0.9048582911491394,"7":-1.3477188348770142,"8":-1.332350730895996,"9":-0.5780846476554871,"10":-1.330193281173706,"11":0.7527137994766235}},"Carmel Malt":{"bias":-0.3158855736255646,"weights":{"0":0.3659428358078003,"1":-0.12040761858224869,"2":1.0929956436157227,"3":-0.9630934596061707,"4":0.8726490139961243,"5":-0.9537447690963745,"6":-1.1636627912521362,"7":-1.4471509456634521,"8":-1.0762656927108765,"9":-0.4221169054508209,"10":-1.2736968994140625,"11":0.6569907665252686}},"Galaxy Hops":{"bias":-0.32778704166412354,"weights":{"0":0.18936637043952942,"1":0.19270969927310944,"2":1.016838788986206,"3":-0.8787923455238342,"4":0.7420287728309631,"5":-1.0592992305755615,"6":-1.0940827131271362,"7":-1.385245680809021,"8":-1.210780143737793,"9":-0.35256433486938477,"10":-1.490569829940796,"11":0.7259166240692139}},"Safale US-05":{"bias":-0.4326675236225128,"weights":{"0":0.34894195199012756,"1":0.014253550209105015,"2":1.0704553127288818,"3":-0.703166663646698,"4":0.8106259107589722,"5":-1.0534226894378662,"6":-0.8431492447853088,"7":-1.4993577003479004,"8":-1.2079895734786987,"9":-0.46329307556152344,"10":-1.536325216293335,"11":0.7404609322547913}}}],"outputLookup":true,"inputLookup":true,"activation":"sigmoid","trainOpts":{"iterations":20000,"errorThresh":0.005,"log":true,"logPeriod":10,"learningRate":0.3,"momentum":0.1,"callbackPeriod":10,"beta1":0.9,"beta2":0.999,"epsilon":1e-8}}